<?xml version="1.0"?>
<opencv_storage>
<stage19>
  <maxWeakCount>5</maxWeakCount>
  <stageThreshold>-2.1287178993225098e-01</stageThreshold>
  <weakClassifiers>
    <_>
      <internalNodes>
        0 -1 15085 -3.7149317562580109e-02</internalNodes>
      <leafValues>
        -7.8947371244430542e-01 5.7777780294418335e-01</leafValues></_>
    <_>
      <internalNodes>
        0 -1 33204 -5.1114129746565595e-05</internalNodes>
      <leafValues>
        6.3185137510299683e-01 -4.7160652279853821e-01</leafValues></_>
    <_>
      <internalNodes>
        0 -1 34797 1.1815123260021210e-02</internalNodes>
      <leafValues>
        -2.5865468382835388e-01 1.</leafValues></_>
    <_>
      <internalNodes>
        0 -1 44505 -2.7723890525521711e-05</internalNodes>
      <leafValues>
        5.9137034416198730e-01 -5.9355062246322632e-01</leafValues></_>
    <_>
      <internalNodes>
        0 -1 3 -1.2639902706723660e-04</internalNodes>
      <leafValues>
        6.7104488611221313e-01 -5.7029563188552856e-01</leafValues></_></weakClassifiers></stage19>
</opencv_storage>
