<?xml version="1.0"?>
<opencv_storage>
<stage27>
  <maxWeakCount>5</maxWeakCount>
  <stageThreshold>7.1744732558727264e-02</stageThreshold>
  <weakClassifiers>
    <_>
      <internalNodes>
        0 -1 116322 3.4782074391841888e-02</internalNodes>
      <leafValues>
        5.3684210777282715e-01 -1.</leafValues></_>
    <_>
      <internalNodes>
        0 -1 112888 3.8093184120953083e-03</internalNodes>
      <leafValues>
        -3.2454571127891541e-01 9.6563988924026489e-01</leafValues></_>
    <_>
      <internalNodes>
        0 -1 114052 -8.5960682481527328e-03</internalNodes>
      <leafValues>
        8.0483388900756836e-01 -2.7532610297203064e-01</leafValues></_>
    <_>
      <internalNodes>
        0 -1 12082 5.3099956363439560e-02</internalNodes>
      <leafValues>
        -3.3719980716705322e-01 8.1576788425445557e-01</leafValues></_>
    <_>
      <internalNodes>
        0 -1 156518 -5.9007958043366671e-04</internalNodes>
      <leafValues>
        -6.8099343776702881e-01 5.9634906053543091e-01</leafValues></_></weakClassifiers></stage27>
</opencv_storage>
