<?xml version="1.0"?>
<opencv_storage>
<stage24>
  <maxWeakCount>5</maxWeakCount>
  <stageThreshold>-2.4316304922103882e-01</stageThreshold>
  <weakClassifiers>
    <_>
      <internalNodes>
        0 -1 46065 -6.2906935811042786e-02</internalNodes>
      <leafValues>
        8.1132078170776367e-01 -1.0714285820722580e-01</leafValues></_>
    <_>
      <internalNodes>
        0 -1 46435 -7.8810594277456403e-04</internalNodes>
      <leafValues>
        8.7289220094680786e-01 -2.4390694499015808e-01</leafValues></_>
    <_>
      <internalNodes>
        0 -1 10176 1.9730674102902412e-03</internalNodes>
      <leafValues>
        -3.2172477245330811e-01 8.7064164876937866e-01</leafValues></_>
    <_>
      <internalNodes>
        0 -1 93678 6.6455372143536806e-04</internalNodes>
      <leafValues>
        -2.5087097287178040e-01 1.</leafValues></_>
    <_>
      <internalNodes>
        0 -1 14943 -1.0746415937319398e-03</internalNodes>
      <leafValues>
        8.5446530580520630e-01 -2.3798111081123352e-01</leafValues></_></weakClassifiers></stage24>
</opencv_storage>
